// #### Generated By: http://www.cufonfonts.com ####
/*!
 * The following copyright notice may not be removed under any circumstances.
 * 
 * Copyright:
 * Digitized data copyright © 2006, Google Corporation.
 * 
 * Trademark:
 * Droid is a trademark of Google and may be registered in certain jurisdictions.
 * 
 * Description:
 * Droid Sans is a humanist sans serif typeface designed for user interfaces and
 * electronic communication.
 * 
 * Manufacturer:
 * Ascender Corporation
 * 
 * Vendor URL:
 * http://www.ascendercorp.com/
 * 
 * License information:
 * http://ascendercorp.com/eula10.html
 */
Cufon.registerFont({"w":1229,"face":{"font-family":"Droid Sans Mono","font-weight":400,"font-stretch":"normal","units-per-em":"2048","panose-1":"2 11 6 9 3 8 4 2 2 4","ascent":"1638","descent":"-410","x-height":"20","bbox":"-16 -1856 1243 492","underline-thickness":"102","underline-position":"-103","unicode-range":"U+0020-U+20AC"},"glyphs":{" ":{},"!":{"d":"676,-414r-121,0r-51,-1048r223,0xm614,-250v85,0,127,46,127,139v0,93,-42,140,-127,140v-85,0,-127,-47,-127,-140v0,-93,42,-139,127,-139"},"\"":{"d":"522,-1462r-41,528r-155,0r-41,-528r237,0xm944,-1462r-41,528r-155,0r-41,-528r237,0"},"#":{"d":"936,-893r-64,328r240,0r0,137r-266,0r-82,428r-148,0r84,-428r-290,0r-82,428r-144,0r78,-428r-217,0r0,-137r244,0r65,-328r-233,0r0,-137r258,0r82,-432r147,0r-82,432r293,0r84,-432r144,0r-84,432r221,0r0,137r-248,0xm436,-565r291,0r64,-328r-291,0"},"$":{"d":"199,-1051v0,-195,155,-302,348,-323r0,-180r137,0r0,176v125,6,237,32,336,78r-66,145v-93,-41,-183,-65,-270,-72r0,422v133,45,226,95,280,149v54,54,80,123,80,210v0,187,-120,298,-360,335r0,230r-137,0r0,-221v-152,0,-274,-23,-365,-70r0,-172v131,61,252,92,365,92r0,-434v-129,-43,-219,-92,-271,-146v-52,-54,-77,-127,-77,-219xm547,-854r0,-369v-115,19,-172,77,-172,174v0,124,67,156,172,195xm684,-635r0,373v123,-19,184,-80,184,-184v0,-85,-61,-148,-184,-189"},"%":{"d":"586,-1133v0,203,-102,349,-295,349v-184,0,-291,-152,-291,-349v0,-204,102,-345,295,-346v182,0,291,150,291,346xm293,-903v93,0,139,-77,139,-230v0,-150,-46,-225,-139,-225v-94,0,-141,75,-141,225v0,153,47,230,141,230xm1057,-1462r-729,1462r-158,0r729,-1462r158,0xm1229,-330v0,202,-103,348,-295,348v-183,0,-291,-153,-291,-348v0,-204,102,-345,295,-346v182,0,291,150,291,346xm936,-100v93,0,139,-77,139,-230v0,-150,-46,-225,-139,-225v-94,0,-141,75,-141,225v0,153,47,230,141,230"},"&":{"d":"567,-1485v214,0,353,115,353,320v0,135,-106,265,-318,389r281,348v47,-81,82,-169,104,-266r184,0v-35,156,-95,290,-178,403r234,291r-217,0r-131,-166v-116,124,-253,186,-412,186v-249,0,-408,-153,-406,-401v0,-87,21,-164,63,-229v42,-65,121,-131,236,-199v-109,-128,-163,-247,-163,-356v1,-209,147,-320,370,-320xm561,-1335v-112,0,-187,60,-186,170v0,79,44,168,133,268v89,-53,151,-99,184,-139v33,-40,49,-84,49,-133v1,-100,-77,-166,-180,-166xm252,-387v0,132,101,246,227,246v107,0,206,-49,299,-146r-323,-401v-135,82,-203,182,-203,301"},"'":{"d":"733,-1462r-41,528r-155,0r-41,-528r237,0"},"(":{"d":"739,-1462r193,0v-299,251,-449,548,-449,893v0,347,149,645,447,893r-191,0v-296,-235,-444,-532,-444,-891v0,-355,148,-653,444,-895"},")":{"d":"489,324r-190,0v297,-247,446,-545,446,-893v0,-345,-149,-643,-448,-893r192,0v297,241,445,539,445,895v0,360,-148,657,-445,891"},"*":{"d":"715,-1556r-43,393r397,-111r27,193r-379,28r246,326r-179,96r-176,-358r-157,358r-185,-96r242,-326r-375,-28r29,-193r391,111r-43,-393r205,0"},"+":{"d":"539,-647r-387,0r0,-150r387,0r0,-389r149,0r0,389r387,0r0,150r-387,0r0,385r-149,0r0,-385"},",":{"d":"770,-262r16,24v-38,149,-103,325,-194,527r-152,0v51,-215,88,-399,111,-551r219,0"},"-":{"d":"285,-465r0,-168r659,0r0,168r-659,0"},".":{"d":"614,-301v101,0,152,55,152,166v0,111,-51,166,-152,166v-101,0,-151,-55,-151,-166v0,-111,50,-166,151,-166"},"\/":{"d":"1016,-1462r-627,1462r-178,0r627,-1462r178,0"},"0":{"d":"612,20v-153,0,-268,-65,-347,-194v-79,-129,-118,-315,-118,-559v0,-501,155,-752,465,-752v155,0,271,64,350,193v79,129,119,316,119,559v0,502,-156,753,-469,753xm612,-135v98,0,166,-50,216,-141v87,-159,88,-753,0,-912v-50,-91,-118,-141,-216,-141v-97,0,-163,48,-212,139v-86,158,-85,758,0,915v49,91,115,140,212,140"},"1":{"d":"758,0r-176,0r0,-913v0,-81,3,-202,8,-361v-60,67,-187,167,-268,234r-97,-123r383,-299r150,0r0,1462"},"2":{"d":"594,-1483v249,0,420,149,418,391v0,79,-21,160,-59,244v-74,161,-409,499,-572,674r0,8r688,0r0,166r-911,0r0,-156r350,-381v130,-142,216,-247,257,-317v41,-70,62,-147,62,-231v0,-147,-90,-245,-235,-244v-107,0,-213,46,-318,137r-102,-119v128,-115,269,-172,422,-172"},"3":{"d":"1010,-1120v0,200,-131,321,-316,350r0,6v241,31,361,147,361,348v0,293,-218,436,-537,436v-161,0,-290,-26,-387,-79r0,-170v123,64,250,96,383,96v236,0,354,-96,354,-289v0,-172,-127,-258,-381,-258r-133,0r0,-151r133,0v196,3,334,-97,336,-277v1,-140,-106,-221,-250,-221v-119,0,-233,40,-344,121r-92,-125v125,-100,270,-150,436,-150v254,0,437,128,437,363"},"4":{"d":"1126,-328r-213,0r0,328r-176,0r0,-328r-676,0r0,-159r664,-983r188,0r0,976r213,0r0,166xm737,-494r0,-356v0,-117,4,-261,13,-432r-9,0v-24,68,-55,128,-90,180r-411,608r497,0"},"5":{"d":"1055,-469v0,318,-203,489,-527,489v-149,0,-268,-26,-356,-79r0,-172v96,64,216,96,360,96v224,0,336,-105,336,-314v0,-196,-115,-294,-344,-294v-59,0,-136,9,-231,26r-90,-57r55,-688r690,0r0,166r-532,0r-39,419v71,-13,141,-20,209,-20v271,-3,469,160,469,428"},"6":{"d":"631,20v-324,-4,-477,-281,-477,-645v0,-572,213,-858,639,-858v69,0,127,6,172,19r0,155v-47,-16,-103,-24,-166,-24v-338,0,-446,223,-459,588r12,0v63,-113,166,-170,307,-170v263,0,416,177,416,444v0,290,-166,494,-444,491xm629,-133v183,-3,270,-140,270,-338v0,-184,-88,-297,-264,-301v-155,-3,-299,123,-299,266v0,187,112,376,293,373"},"7":{"d":"334,0r563,-1296r-754,0r0,-166r940,0r0,145r-555,1317r-194,0"},"8":{"d":"614,-1485v231,0,412,129,412,352v0,153,-87,273,-262,359v206,107,309,238,309,393v0,249,-199,401,-459,401v-272,0,-458,-134,-458,-393v0,-171,94,-302,282,-393v-157,-97,-235,-220,-235,-369v0,-219,187,-350,411,-350xm612,-1333v-137,0,-236,71,-231,207v7,166,91,205,235,278v155,-69,232,-161,232,-278v1,-138,-95,-207,-236,-207xm610,-131v171,0,285,-85,285,-248v0,-60,-22,-112,-63,-159v-43,-49,-142,-112,-244,-158v-169,81,-254,189,-254,325v0,160,92,240,276,240"},"9":{"d":"598,-1483v324,3,477,285,477,645v0,572,-213,858,-639,858v-70,0,-127,-6,-172,-18r0,-156v45,17,100,25,166,25v338,0,446,-223,459,-588r-12,0v-64,113,-167,170,-308,170v-262,2,-415,-176,-415,-444v0,-289,166,-495,444,-492xm600,-1329v-185,3,-270,138,-270,338v0,184,88,297,264,301v155,3,299,-124,299,-266v0,-187,-111,-376,-293,-373"},":":{"d":"614,-1126v85,0,127,46,127,139v0,93,-42,139,-127,139v-85,0,-127,-46,-127,-139v0,-93,42,-139,127,-139xm614,-250v85,0,127,46,127,139v0,93,-42,140,-127,140v-85,0,-127,-47,-127,-140v0,-93,42,-139,127,-139"},";":{"d":"621,-1126v85,0,127,46,127,139v0,93,-42,139,-127,139v-85,0,-127,-46,-127,-139v0,-93,42,-139,127,-139xm709,-238r14,23v-34,131,-93,291,-176,479r-137,0v41,-170,75,-337,100,-502r199,0"},"<":{"d":"1075,-221r-923,-451r0,-102r923,-451r0,160r-715,342r715,342r0,160"},"=":{"d":"152,-852r0,-149r923,0r0,149r-923,0xm152,-442r0,-150r923,0r0,150r-923,0"},">":{"d":"152,-381r714,-342r-714,-342r0,-160r923,451r0,102r-923,451r0,-160"},"?":{"d":"594,-1483v259,0,462,122,465,359v0,89,-17,161,-53,216v-36,55,-101,119,-197,191v-78,58,-129,105,-151,141v-24,39,-35,95,-33,162r-160,0v-4,-219,66,-285,207,-389v87,-65,144,-116,172,-155v28,-39,41,-91,41,-158v0,-137,-126,-207,-281,-207v-116,0,-240,30,-371,90r-65,-153v139,-65,281,-97,426,-97xm553,-250v85,0,127,46,127,139v0,93,-42,140,-127,140v-85,0,-127,-47,-127,-140v0,-93,42,-139,127,-139"},"@":{"d":"664,182v-425,-2,-633,-329,-633,-784v0,-265,56,-474,167,-628v111,-154,263,-232,455,-232v165,0,298,65,397,196v99,131,148,309,148,535v0,154,-21,278,-64,371v-43,93,-102,139,-178,139v-85,0,-138,-60,-157,-180r-4,0v-49,120,-126,180,-230,180v-180,0,-260,-181,-260,-385v0,-248,124,-457,352,-459v91,0,177,16,256,47r-24,492v0,117,24,176,72,176v67,0,100,-128,100,-383v0,-185,-37,-331,-111,-436v-74,-105,-174,-158,-299,-158v-151,0,-269,64,-353,192v-84,128,-126,304,-126,527v0,379,150,653,498,653v121,0,236,-26,346,-78r0,133v-105,55,-223,82,-352,82xm649,-936v-139,0,-185,172,-184,334v0,168,42,252,127,252v87,0,133,-104,145,-312r15,-253v-36,-14,-70,-21,-103,-21"},"A":{"d":"1004,0r-144,-453r-491,0r-146,453r-190,0r483,-1468r195,0r485,1468r-192,0xm807,-618r-133,-424v-26,-83,-47,-158,-62,-226v-51,233,-127,431,-190,650r385,0"},"B":{"d":"1137,-424v0,271,-195,424,-475,424r-527,0r0,-1462r440,0v328,3,515,75,521,370v3,179,-125,297,-291,316r0,10v221,36,332,150,332,342xm905,-1079v0,-181,-120,-224,-319,-224r-264,0r0,461r284,0v195,-2,299,-53,299,-237xm322,-686r0,528r307,0v207,0,311,-91,311,-274v0,-169,-108,-254,-324,-254r-294,0"},"C":{"d":"326,-731v0,355,139,584,471,588v87,0,196,-19,327,-58r0,162v-97,39,-217,59,-358,59v-433,-1,-637,-300,-637,-753v0,-440,243,-752,668,-750v147,0,274,29,383,86r-78,156v-103,-52,-204,-78,-305,-78v-307,1,-471,258,-471,588"},"D":{"d":"1147,-745v0,472,-246,746,-711,745r-301,0r0,-1462r342,0v429,-2,670,279,670,717xm322,-1303r0,1143v418,24,628,-156,628,-579v0,-376,-164,-564,-493,-564r-135,0"},"E":{"d":"1059,0r-842,0r0,-1462r842,0r0,164r-656,0r0,452r617,0r0,162r-617,0r0,520r656,0r0,164"},"F":{"d":"430,0r-186,0r0,-1462r841,0r0,164r-655,0r0,516r617,0r0,164r-617,0r0,618"},"G":{"d":"117,-733v0,-432,204,-748,608,-750v128,0,243,29,346,86r-72,162v-207,-125,-451,-118,-579,71v-71,104,-107,248,-107,433v0,486,209,665,596,559r0,-436r-237,0r0,-164r422,0r0,717v-130,50,-270,75,-420,75v-175,0,-312,-67,-410,-200v-98,-133,-147,-317,-147,-553"},"H":{"d":"1094,0r-187,0r0,-682r-585,0r0,682r-187,0r0,-1462r187,0r0,616r585,0r0,-616r187,0r0,1462"},"I":{"d":"1001,0r-776,0r0,-123r295,-20r0,-1176r-295,-20r0,-123r776,0r0,123r-294,20r0,1176r294,20r0,123"},"J":{"d":"979,-451v2,294,-216,471,-518,471v-145,0,-253,-20,-324,-59r0,-166v108,41,211,62,309,62v206,2,347,-105,347,-306r0,-1013r186,0r0,1011"},"K":{"d":"1198,0r-211,0r-450,-698r-140,114r0,584r-186,0r0,-1462r186,0r0,731r121,-168r453,-563r209,0r-521,637"},"L":{"d":"233,0r0,-1462r187,0r0,1296r635,0r0,166r-822,0"},"M":{"d":"532,0r-278,-1280r-8,0v34,470,12,812,18,1280r-151,0r0,-1462r247,0r248,1192r6,0r250,-1192r252,0r0,1462r-153,0r0,-887v0,-68,5,-198,14,-391r-8,0r-283,1278r-154,0"},"N":{"d":"1092,0r-215,0r-580,-1210r-8,0v32,455,13,762,18,1210r-172,0r0,-1462r213,0r578,1204r6,0v-9,-202,-14,-337,-14,-404r0,-800r174,0r0,1462"},"O":{"d":"616,20v-355,0,-532,-252,-532,-755v0,-500,178,-750,534,-750v171,0,296,68,392,195v178,236,178,880,-1,1114v-97,127,-223,196,-393,196xm616,-143v115,0,196,-51,254,-145v103,-168,102,-725,-2,-890v-59,-92,-137,-143,-250,-143v-225,0,-337,196,-337,588v0,393,112,590,335,590"},"P":{"d":"1094,-1034v0,309,-212,469,-541,465r-191,0r0,569r-186,0r0,-1462r404,0v343,0,514,143,514,428xm532,-727v245,-1,369,-72,369,-297v0,-186,-113,-279,-338,-279r-201,0r0,576r170,0"},"Q":{"d":"862,-39v57,120,150,224,279,311r-121,142v-157,-114,-267,-247,-328,-400v-24,4,-49,6,-76,6v-355,0,-532,-252,-532,-755v0,-500,178,-750,534,-750v171,0,301,65,392,195v91,130,137,316,137,557v0,351,-95,582,-285,694xm616,-143v115,0,196,-51,254,-145v103,-168,102,-725,-2,-890v-59,-92,-137,-143,-250,-143v-225,0,-337,196,-337,588v0,393,112,590,335,590"},"R":{"d":"373,-604r0,604r-187,0r0,-1462r357,0v347,0,520,138,520,415v0,191,-96,322,-289,392r397,655r-219,0r-350,-604r-229,0xm870,-1038v0,-206,-118,-263,-338,-265r-159,0r0,541r164,0v216,-1,333,-71,333,-276"},"S":{"d":"1087,-391v0,280,-225,411,-532,411v-177,0,-315,-23,-414,-69r0,-178v141,57,279,86,414,86v233,0,350,-80,350,-240v0,-69,-24,-123,-71,-160v-47,-37,-142,-82,-285,-133v-139,-49,-239,-106,-299,-174v-60,-68,-90,-156,-90,-264v2,-251,210,-371,481,-371v153,0,291,26,416,78r-64,164v-129,-52,-249,-78,-360,-78v-195,0,-293,70,-293,209v0,68,22,123,66,164v44,41,134,85,270,133v164,58,273,119,328,181v55,62,83,143,83,241"},"T":{"d":"707,0r-187,0r0,-1298r-418,0r0,-164r1022,0r0,164r-417,0r0,1298"},"U":{"d":"1104,-516v1,338,-164,536,-496,536v-322,0,-483,-180,-483,-540r0,-942r186,0r0,932v0,258,102,387,307,387v197,0,300,-130,300,-389r0,-932r186,0r0,948"},"V":{"d":"997,-1462r199,0r-489,1462r-187,0r-487,-1462r196,0r295,927v27,85,57,196,88,334v101,-416,263,-854,385,-1261"},"W":{"d":"528,-1008r177,0r145,521v41,146,65,248,72,307r135,-1282r170,0r-187,1462r-190,0r-168,-580v-27,-92,-49,-186,-66,-282v-63,326,-145,561,-221,862r-190,0r-203,-1462r170,0r88,663v21,146,52,493,57,619v48,-282,143,-559,211,-828"},"X":{"d":"1174,0r-211,0r-355,-635r-366,635r-189,0r453,-764r-422,-698r199,0r331,559r334,-559r191,0r-422,692"},"Y":{"d":"612,-723r381,-739r201,0r-487,893r0,569r-187,0r0,-559r-487,-903r203,0"},"Z":{"d":"1124,0r-1022,0r0,-145r793,-1151r-772,0r0,-166r981,0r0,145r-793,1151r813,0r0,166"},"[":{"d":"940,324r-528,0r0,-1786r528,0r0,149r-346,0r0,1487r346,0r0,150"},"\\":{"d":"389,-1462r627,1462r-178,0r-627,-1462r178,0"},"]":{"d":"289,174r346,0r0,-1487r-346,0r0,-149r528,0r0,1786r-528,0r0,-150"},"^":{"d":"111,-549r424,-924r102,0r481,924r-162,0r-368,-735r-318,735r-159,0"},"_":{"d":"1243,324r-1259,0r0,-140r1259,0r0,140"},"`":{"d":"811,-1241r-121,0v-111,-95,-201,-197,-272,-307r0,-21r219,0v57,119,115,219,174,301r0,27"},"a":{"d":"596,-1118v288,1,430,93,430,366r0,752r-131,0r-37,-152r-8,0v-97,118,-171,170,-367,172v-212,3,-348,-118,-348,-327v0,-221,170,-337,510,-348r203,-7v14,-196,-54,-305,-244,-305v-98,0,-207,27,-328,82r-63,-137v131,-64,258,-96,383,-96xm524,-127v194,1,325,-115,322,-311r0,-99v-248,13,-523,-5,-522,232v0,119,67,178,200,178"},"b":{"d":"1092,-551v0,324,-136,571,-430,571v-138,0,-245,-53,-322,-159r-12,0r-37,139r-133,0r0,-1556r182,0r0,376v0,54,-3,129,-8,226r8,0v71,-109,179,-164,322,-164v293,0,430,245,430,567xm629,-967v-239,0,-289,146,-289,416v0,268,55,420,291,420v181,0,272,-141,272,-422v0,-276,-91,-414,-274,-414"},"c":{"d":"172,-543v0,-365,196,-575,553,-575v119,0,231,20,336,59r-62,158v-100,-38,-189,-57,-268,-57v-247,0,-371,138,-371,413v0,271,120,406,361,406v105,0,212,-21,321,-62r0,160v-89,41,-199,61,-329,61v-347,1,-541,-209,-541,-563"},"d":{"d":"137,-547v0,-324,136,-571,430,-571v137,0,245,53,322,160r12,0v-24,-228,-7,-371,-12,-598r182,0r0,1556r-147,0r-27,-147r-8,0v-75,111,-183,167,-322,167v-293,0,-430,-245,-430,-567xm600,-131v239,0,290,-159,289,-416v-1,-268,-55,-420,-291,-420v-181,0,-272,141,-272,422v0,276,91,414,274,414"},"e":{"d":"631,-1118v284,0,469,203,465,491r0,113r-774,0v5,250,120,375,344,375v130,0,253,-25,370,-76r0,160v-111,50,-232,75,-364,75v-330,2,-539,-223,-539,-561v0,-333,182,-577,498,-577xm326,-662r573,0v0,-203,-91,-305,-272,-305v-183,0,-284,102,-301,305"},"f":{"d":"866,-1417v-163,1,-208,56,-211,215r0,104r389,0r0,137r-389,0r0,961r-182,0r0,-961r-317,0r0,-110r317,-33r0,-96v3,-266,115,-366,389,-367v86,0,170,12,252,35r-41,143v-69,-19,-138,-28,-207,-28"},"g":{"d":"188,-739v-1,-248,156,-381,410,-379v57,0,107,7,150,20r378,0r0,113r-196,27v43,57,65,128,65,213v2,253,-212,385,-489,346v-67,37,-100,82,-100,133v0,56,54,84,161,84r187,0v216,-2,358,94,358,297v0,251,-188,377,-565,377v-254,0,-445,-84,-445,-306v0,-141,80,-231,240,-270v-64,-31,-96,-83,-96,-154v0,-75,44,-139,133,-192v-109,-42,-191,-166,-191,-309xm594,-518v149,0,223,-77,223,-230v0,-159,-75,-239,-225,-239v-150,0,-225,81,-225,242v0,151,76,227,227,227xm940,131v0,-144,-78,-149,-248,-149r-188,0v-153,0,-230,66,-230,198v0,116,90,174,271,174v263,0,395,-74,395,-223"},"h":{"d":"887,0r0,-707v0,-173,-79,-260,-238,-260v-205,0,-307,133,-307,398r0,569r-182,0r0,-1556r182,0r0,462r-8,144r10,0v69,-112,181,-168,336,-168v259,0,389,134,389,401r0,717r-182,0"},"i":{"d":"739,-1436v0,71,-43,115,-106,115v-71,0,-107,-38,-107,-115v0,-76,36,-114,107,-114v71,0,106,38,106,114xm541,-954r-269,-21r0,-123r451,0r0,955r352,20r0,123r-878,0r0,-123r344,-20r0,-811"},"j":{"d":"743,-1550v71,0,107,38,107,114v0,77,-36,115,-107,115v-71,0,-106,-38,-106,-115v0,-76,35,-114,106,-114xm854,117v0,250,-172,375,-432,375v-109,0,-205,-12,-287,-35r0,-154v89,26,186,39,289,39v147,0,248,-74,248,-215r0,-1081r-420,-21r0,-123r602,0r0,1215"},"k":{"d":"383,-553r135,-152r395,-393r222,0r-494,475r522,623r-213,0r-426,-504r-129,82r0,422r-180,0r0,-1556r180,0r0,714r-16,289r4,0"},"l":{"d":"532,-1413r-268,-21r0,-122r451,0r0,1413r352,20r0,123r-879,0r0,-123r344,-20r0,-1270"},"m":{"d":"977,0r0,-707v0,-97,-9,-165,-27,-203v-43,-93,-178,-63,-214,26v-23,57,-40,148,-40,278r0,606r-161,0r0,-707v0,-173,-42,-260,-125,-260v-56,0,-96,26,-120,79v-24,53,-36,160,-36,319r0,569r-162,0r0,-1098r127,0r27,148r10,0v45,-112,112,-168,201,-168v109,0,180,61,213,182r6,0v51,-121,124,-182,219,-182v85,0,147,30,186,92v39,62,58,165,58,309r0,717r-162,0"},"n":{"d":"887,0r0,-707v0,-173,-79,-260,-238,-260v-205,0,-307,133,-307,398r0,569r-182,0r0,-1098r147,0r27,148r10,0v69,-112,181,-168,336,-168v259,0,389,134,389,401r0,717r-182,0"},"o":{"d":"1112,-551v0,333,-186,571,-502,571v-301,0,-495,-250,-495,-571v0,-332,183,-567,501,-567v302,0,496,247,496,567xm614,-131v207,0,310,-140,310,-420v0,-277,-104,-416,-312,-416v-206,0,-309,139,-309,416v0,280,104,420,311,420"},"p":{"d":"1092,-551v0,324,-136,571,-430,571v-138,0,-245,-53,-322,-159r-12,0v24,233,7,396,12,631r-182,0r0,-1590r147,0r27,148r8,0v73,-112,181,-168,322,-168v293,0,430,245,430,567xm629,-967v-240,0,-290,158,-289,416v1,268,55,420,291,420v181,0,272,-141,272,-422v0,-276,-91,-414,-274,-414"},"q":{"d":"137,-547v0,-324,136,-571,430,-571v138,0,245,56,322,168r8,0r27,-148r147,0r0,1590r-182,0r0,-469v0,-27,4,-84,12,-170r-12,0v-75,111,-183,167,-322,167v-293,0,-430,-245,-430,-567xm600,-131v239,0,290,-159,289,-416v-1,-268,-55,-420,-291,-420v-181,0,-272,141,-272,422v0,276,91,414,274,414"},"r":{"d":"442,-897v92,-139,175,-221,377,-221v79,0,159,15,240,45r-49,166v-82,-30,-157,-45,-224,-45v-221,0,-340,133,-340,360r0,592r-182,0r0,-1098r148,0r22,201r8,0"},"s":{"d":"1026,-301v0,224,-196,321,-448,321v-165,0,-290,-23,-375,-69r0,-166v129,57,252,86,370,86v183,0,275,-54,275,-162v0,-38,-16,-71,-49,-99v-33,-28,-108,-63,-226,-106v-156,-57,-253,-112,-293,-160v-40,-48,-61,-105,-61,-171v2,-336,521,-342,789,-217r-60,149v-121,-48,-228,-72,-319,-72v-157,0,-236,44,-236,133v0,41,17,74,51,98v34,24,111,57,232,101v141,51,234,101,280,151v46,50,70,111,70,183"},"t":{"d":"1020,-150r0,138v-87,21,-171,32,-252,32v-241,0,-362,-115,-362,-344r0,-637r-267,0r0,-94r267,-49r77,-287r105,0r0,293r438,0r0,137r-438,0r0,637v0,130,64,195,192,195v62,0,142,-7,240,-21"},"u":{"d":"578,-131v238,0,309,-137,309,-397r0,-570r182,0r0,1098r-147,0r-27,-147r-10,0v-70,111,-181,167,-334,167v-261,0,-391,-134,-391,-401r0,-717r182,0r0,707v0,173,79,260,236,260"},"v":{"d":"498,0r-416,-1098r188,0r240,652v57,154,90,262,100,325r6,0v59,-231,246,-717,340,-977r189,0r-416,1098r-231,0"},"w":{"d":"813,0r-131,-596r-68,-330r-6,0r-65,334r-135,592r-189,0r-223,-1098r162,0r98,543v23,124,42,255,57,393r6,0v53,-329,131,-625,201,-936r193,0r127,578v29,130,51,249,67,358r6,0v21,-161,41,-292,60,-393r102,-543r158,0r-225,1098r-195,0"},"x":{"d":"510,-563r-393,-535r207,0r290,410r291,-410r207,0r-395,535r413,563r-206,0r-310,-436r-311,436r-207,0"},"y":{"d":"82,-1098r188,0r262,654v55,137,84,233,89,290r6,0v75,-299,228,-650,329,-944r189,0r-475,1241v-45,116,-98,201,-156,261v-88,91,-259,104,-414,71r0,-145v92,18,226,18,286,-29v67,-53,115,-194,153,-291"},"z":{"d":"1044,0r-862,0r0,-125r660,-836r-627,0r0,-137r811,0r0,146r-647,815r665,0r0,137"},"{":{"d":"1001,-1313v-162,5,-256,23,-256,158r0,332v0,138,-78,221,-233,248r0,12v155,27,233,110,233,248r0,331v8,135,95,153,256,158r0,150v-292,-4,-438,-102,-438,-293r0,-334v0,-126,-113,-189,-338,-189r0,-155v225,0,338,-63,338,-189r0,-333v0,-191,146,-289,438,-293r0,149"},"|":{"d":"539,-1556r149,0r0,2048r-149,0r0,-2048"},"}":{"d":"227,174v162,-4,256,-24,256,-158r0,-331v0,-138,78,-221,234,-248r0,-12v-156,-27,-234,-110,-234,-248r0,-332v-8,-134,-95,-155,-256,-158r0,-149v293,4,439,102,439,293r0,333v0,126,113,189,338,189r0,155v-225,0,-338,63,-338,189r0,334v0,191,-146,289,-439,293r0,-150"},"~":{"d":"152,-586r0,-162v133,-137,296,-132,495,-45v201,89,277,77,428,-65r0,162v-132,137,-297,132,-495,45v-202,-89,-276,-77,-428,65"},"\u00c7":{"d":"508,483r0,-108v22,4,49,6,80,6v101,0,151,-31,151,-92v0,-49,-57,-87,-172,-113r91,-176r120,0r-57,115v107,25,160,82,160,172v0,137,-97,205,-291,205v-23,0,-50,-3,-82,-9xm326,-731v0,355,139,584,471,588v87,0,196,-19,327,-58r0,162v-97,39,-217,59,-358,59v-433,-1,-637,-300,-637,-753v0,-440,243,-752,668,-750v147,0,274,29,383,86r-78,156v-103,-52,-204,-78,-305,-78v-307,1,-471,258,-471,588"},"\u00d6":{"d":"428,-1835v64,0,96,34,96,102v0,69,-32,103,-96,103v-64,0,-96,-34,-96,-103v0,-68,32,-102,96,-102xm803,-1835v64,0,96,34,96,102v0,69,-32,103,-96,103v-64,0,-96,-34,-96,-103v0,-68,32,-102,96,-102xm616,20v-355,0,-532,-252,-532,-755v0,-500,178,-750,534,-750v171,0,296,68,392,195v178,236,178,880,-1,1114v-97,127,-223,196,-393,196xm616,-143v115,0,196,-51,254,-145v103,-168,102,-725,-2,-890v-59,-92,-137,-143,-250,-143v-225,0,-337,196,-337,588v0,393,112,590,335,590"},"\u00dc":{"d":"428,-1835v64,0,96,34,96,102v0,69,-32,103,-96,103v-64,0,-96,-34,-96,-103v0,-68,32,-102,96,-102xm803,-1835v64,0,96,34,96,102v0,69,-32,103,-96,103v-64,0,-96,-34,-96,-103v0,-68,32,-102,96,-102xm1104,-516v1,338,-164,536,-496,536v-322,0,-483,-180,-483,-540r0,-942r186,0r0,932v0,258,102,387,307,387v197,0,300,-130,300,-389r0,-932r186,0r0,948"},"\u00e7":{"d":"477,483r0,-108v22,4,49,6,80,6v101,0,151,-31,151,-92v0,-49,-57,-87,-172,-113r91,-176r120,0r-57,115v107,25,160,82,160,172v0,137,-97,205,-291,205v-23,0,-50,-3,-82,-9xm172,-543v0,-365,196,-575,553,-575v119,0,231,20,336,59r-62,158v-100,-38,-189,-57,-268,-57v-247,0,-371,138,-371,413v0,271,120,406,361,406v105,0,212,-21,321,-62r0,160v-89,41,-199,61,-329,61v-347,1,-541,-209,-541,-563"},"\u00f6":{"d":"419,-1497v64,0,96,34,96,102v0,69,-32,103,-96,103v-64,0,-96,-34,-96,-103v0,-68,32,-102,96,-102xm794,-1497v64,0,96,34,96,102v0,69,-32,103,-96,103v-64,0,-96,-34,-96,-103v0,-68,32,-102,96,-102xm1112,-551v0,333,-186,571,-502,571v-301,0,-495,-250,-495,-571v0,-332,183,-567,501,-567v302,0,496,247,496,567xm614,-131v207,0,310,-140,310,-420v0,-277,-104,-416,-312,-416v-206,0,-309,139,-309,416v0,280,104,420,311,420"},"\u00fc":{"d":"428,-1497v64,0,96,34,96,102v0,69,-32,103,-96,103v-64,0,-96,-34,-96,-103v0,-68,32,-102,96,-102xm803,-1497v64,0,96,34,96,102v0,69,-32,103,-96,103v-64,0,-96,-34,-96,-103v0,-68,32,-102,96,-102xm578,-131v238,0,309,-137,309,-397r0,-570r182,0r0,1098r-147,0r-27,-147r-10,0v-70,111,-181,167,-334,167v-261,0,-391,-134,-391,-401r0,-717r182,0r0,707v0,173,79,260,236,260"},"\u011e":{"d":"520,-1856v13,112,59,125,190,125v121,0,184,-42,191,-125r112,0v-11,167,-125,277,-305,277v-187,0,-286,-92,-297,-277r109,0xm117,-733v0,-432,204,-748,608,-750v128,0,243,29,346,86r-72,162v-207,-125,-451,-118,-579,71v-71,104,-107,248,-107,433v0,486,209,665,596,559r0,-436r-237,0r0,-164r422,0r0,717v-130,50,-270,75,-420,75v-175,0,-312,-67,-410,-200v-98,-133,-147,-317,-147,-553"},"\u011f":{"d":"409,-1518v13,112,59,125,190,125v121,0,184,-42,191,-125r112,0v-11,167,-125,277,-305,277v-187,0,-286,-92,-297,-277r109,0xm188,-739v-1,-248,156,-381,410,-379v57,0,107,7,150,20r378,0r0,113r-196,27v43,57,65,128,65,213v2,253,-212,385,-489,346v-67,37,-100,82,-100,133v0,56,54,84,161,84r187,0v216,-2,358,94,358,297v0,251,-188,377,-565,377v-254,0,-445,-84,-445,-306v0,-141,80,-231,240,-270v-64,-31,-96,-83,-96,-154v0,-75,44,-139,133,-192v-109,-42,-191,-166,-191,-309xm594,-518v149,0,223,-77,223,-230v0,-159,-75,-239,-225,-239v-150,0,-225,81,-225,242v0,151,76,227,227,227xm940,131v0,-144,-78,-149,-248,-149r-188,0v-153,0,-230,66,-230,198v0,116,90,174,271,174v263,0,395,-74,395,-223"},"\u0130":{"d":"614,-1847v71,0,107,38,107,114v0,77,-36,115,-107,115v-71,0,-106,-38,-106,-115v0,-76,35,-114,106,-114xm1001,0r-776,0r0,-123r295,-20r0,-1176r-295,-20r0,-123r776,0r0,123r-294,20r0,1176r294,20r0,123"},"\u0131":{"d":"541,-954r-269,-21r0,-123r451,0r0,955r352,20r0,123r-878,0r0,-123r344,-20r0,-811"},"\u015e":{"d":"406,483r0,-108v22,4,49,6,80,6v101,0,151,-31,151,-92v0,-49,-57,-87,-172,-113r91,-176r120,0r-57,115v107,25,160,82,160,172v0,137,-97,205,-291,205v-23,0,-50,-3,-82,-9xm1087,-391v0,280,-225,411,-532,411v-177,0,-315,-23,-414,-69r0,-178v141,57,279,86,414,86v233,0,350,-80,350,-240v0,-69,-24,-123,-71,-160v-47,-37,-142,-82,-285,-133v-139,-49,-239,-106,-299,-174v-60,-68,-90,-156,-90,-264v2,-251,210,-371,481,-371v153,0,291,26,416,78r-64,164v-129,-52,-249,-78,-360,-78v-195,0,-293,70,-293,209v0,68,22,123,66,164v44,41,134,85,270,133v164,58,273,119,328,181v55,62,83,143,83,241"},"\u015f":{"d":"419,483r0,-108v22,4,49,6,80,6v101,0,151,-31,151,-92v0,-49,-57,-87,-172,-113r91,-176r120,0r-57,115v107,25,160,82,160,172v0,137,-97,205,-291,205v-23,0,-50,-3,-82,-9xm1026,-301v0,224,-196,321,-448,321v-165,0,-290,-23,-375,-69r0,-166v129,57,252,86,370,86v183,0,275,-54,275,-162v0,-38,-16,-71,-49,-99v-33,-28,-108,-63,-226,-106v-156,-57,-253,-112,-293,-160v-40,-48,-61,-105,-61,-171v2,-336,521,-342,789,-217r-60,149v-121,-48,-228,-72,-319,-72v-157,0,-236,44,-236,133v0,41,17,74,51,98v34,24,111,57,232,101v141,51,234,101,280,151v46,50,70,111,70,183"},"\u20a3":{"d":"483,-399r293,0r0,137r-293,0r0,262r-178,0r0,-262r-176,0r0,-137r176,0r0,-1063r752,0r0,164r-574,0r0,516r535,0r0,164r-535,0r0,219"},"\u20a4":{"d":"319,-1112v-2,-227,166,-369,398,-369v128,0,243,27,346,80r-66,144v-94,-48,-185,-72,-272,-72v-149,0,-223,82,-223,246r0,192r377,0r0,137r-377,0r0,158r377,0r0,137r-377,0v4,143,-42,238,-140,293r748,0r0,166r-991,0r0,-154v139,-34,205,-135,200,-305r-198,0r0,-137r198,0r0,-158r-198,0r0,-137r198,0r0,-221"},"\u20a7":{"d":"737,-1034v0,309,-171,480,-497,465r0,569r-158,0r0,-1462r205,0v300,0,450,143,450,428xm240,-715v221,11,333,-88,333,-309v1,-219,-113,-307,-333,-291r0,600xm1190,-137r0,125v-43,21,-98,32,-166,32v-147,0,-221,-94,-221,-282r0,-356r-115,0r0,-70r115,-51r65,-215r86,0r0,211r209,0r0,125r-209,0r0,348v0,102,38,153,113,153v41,0,82,-7,123,-20"},"\u20ac":{"d":"256,-934v44,-313,213,-549,539,-549v127,0,239,31,335,92r-79,146v-161,-100,-349,-106,-475,25v-65,66,-109,162,-134,286r432,0r0,137r-446,0r-2,116v0,13,1,27,2,42r385,0r0,137r-367,0v49,239,172,359,369,359v91,0,180,-19,268,-58r0,162v-81,39,-175,59,-282,59v-298,0,-478,-174,-541,-522r-164,0r0,-137r148,0v-4,-51,0,-105,0,-158r-148,0r0,-137r160,0"},"\u00a0":{}}});
